{
    "in_shape": [
        null,
        null,
        2
    ],
    "layers": [
        {
            "type": "dense",
            "activation": "tanh",
            "shape": [
                null,
                null,
                8
            ],
            "weights": [
                [
                    [
                        -0.02245539426803589,
                        0.026700828224420547,
                        0.04384320601820946,
                        0.0325588621199131,
                        0.008500802330672741,
                        0.00772225484251976,
                        0.0774487778544426,
                        0.041948847472667694
                    ],
                    [
                        0.03623443469405174,
                        0.00813067052513361,
                        0.007771659176796675,
                        0.07737500965595245,
                        0.07588281482458115,
                        -0.018882671371102333,
                        -0.013513247482478619,
                        0.015727844089269638
                    ]
                ],
                [
                    0.10126973688602448,
                    -0.012200606986880302,
                    0.03723267838358879,
                    0.10930043458938599,
                    0.006733881775289774,
                    0.009822667576372623,
                    -0.023673461750149727,
                    0.04003250598907471
                ]
            ]
        },
        {
            "type": "conv1d",
            "activation": "tanh",
            "shape": [
                null,
                null,
                4
            ],
            "kernel_size": [
                3
            ],
            "dilation": [
                2
            ],
            "weights": [
                [
                    [
                        [
                            0.06504693627357483,
                            -0.22204509377479553,
                            -0.04879528284072876,
                            0.3352867364883423
                        ],
                        [
                            0.23473459482192993,
                            0.08579659461975098,
                            0.050855547189712524,
                            -0.239443838596344
                        ],
                        [
                            -0.12882590293884277,
                            0.11364597082138062,
                            0.28463464975357056,
                            0.12068909406661987
                        ],
                        [
                            -0.2604290246963501,
                            0.24493998289108276,
                            -0.12980341911315918,
                            -0.38765963912010193
                        ],
                        [
                            0.36938607692718506,
                            0.001787632703781128,
                            0.2577741742134094,
                            -0.2815394997596741
                        ],
                        [
                            -0.1652625948190689,
                            -0.2199321687221527,
                            0.046106040477752686,
                            -0.20797662436962128
                        ],
                        [
                            0.025874674320220947,
                            0.22620660066604614,
                            -0.0758056640625,
                            -0.30303892493247986
                        ],
                        [
                            0.23510140180587769,
                            -0.27850598096847534,
                            0.3861134648323059,
                            -0.3848057985305786
                        ]
                    ],
                    [
                        [
                            0.18014317750930786,
                            -0.03591379523277283,
                            -0.2735171318054199,
                            -0.14570030570030212
                        ],
                        [
                            -0.015155673027038574,
                            0.13486462831497192,
                            0.14101552963256836,
                            -0.3570772111415863
                        ],
                        [
                            0.07579359412193298,
                            0.10015344619750977,
                            0.3592473864555359,
                            -0.039935171604156494
                        ],
                        [
                            -0.24644798040390015,
                            0.03379592299461365,
                            0.059482455253601074,
                            -0.26287978887557983
                        ],
                        [
                            -0.21830250322818756,
                            0.14432650804519653,
                            0.3801337480545044,
                            -0.3559349775314331
                        ],
                        [
                            -0.16915030777454376,
                            -0.22258256375789642,
                            -0.10566294193267822,
                            0.36436593532562256
                        ],
                        [
                            0.2823827266693115,
                            -0.10028690099716187,
                            0.18719542026519775,
                            -0.13687756657600403
                        ],
                        [
                            0.08742207288742065,
                            0.043532609939575195,
                            0.016591548919677734,
                            0.15209823846817017
                        ]
                    ],
                    [
                        [
                            -0.32759881019592285,
                            -0.34584465622901917,
                            0.32709598541259766,
                            -0.25258147716522217
                        ],
                        [
                            0.39697265625,
                            0.3388250470161438,
                            0.11310237646102905,
                            0.12159448862075806
                        ],
                        [
                            -0.31832748651504517,
                            -0.22692862153053284,
                            -0.3366238474845886,
                            -0.20518723130226135
                        ],
                        [
                            0.21511131525039673,
                            -0.2900236248970032,
                            0.025831937789916992,
                            0.24573814868927002
                        ],
                        [
                            0.16865479946136475,
                            -0.35633230209350586,
                            -0.06809231638908386,
                            -0.30372777581214905
                        ],
                        [
                            -0.10787224769592285,
                            0.160416841506958,
                            -0.32850539684295654,
                            -0.16218294203281403
                        ],
                        [
                            0.2883187532424927,
                            0.017639726400375366,
                            -0.3640294671058655,
                            -0.292187362909317
                        ],
                        [
                            -0.37323492765426636,
                            0.06659182906150818,
                            0.351587176322937,
                            0.3499211072921753
                        ]
                    ]
                ],
                [
                    -0.06771709024906158,
                    -0.1260613203048706,
                    -0.0531536228954792,
                    -0.023319168016314507
                ]
            ]
        },
        {
            "type": "gru",
            "activation": "tanh",
            "shape": [
                null,
                null,
                8
            ],
            "weights": [
                [
                    [
                        -0.19890689849853516,
                        0.22017240524291992,
                        -0.10175931453704834,
                        0.09486263990402222,
                        0.03705650568008423,
                        0.33621644973754883,
                        0.1789863109588623,
                        0.07839441299438477,
                        0.23983049392700195,
                        0.053462445735931396,
                        0.09799724817276001,
                        -0.10804414749145508,
                        -0.45943737030029297,
                        -0.3930959403514862,
                        0.34350788593292236,
                        0.23869407176971436,
                        0.35219550132751465,
                        -0.13898026943206787,
                        0.04916447401046753,
                        0.2950214147567749,
                        0.2565450668334961,
                        0.12363171577453613,
                        0.12886565923690796,
                        -0.17126330733299255
                    ],
                    [
                        0.1309506893157959,
                        -0.25702303647994995,
                        0.013331383466720581,
                        0.04854375123977661,
                        0.1389053463935852,
                        0.24031084775924683,
                        -0.35139840841293335,
                        -0.009685099124908447,
                        0.2595113515853882,
                        0.35952889919281006,
                        -0.2937140166759491,
                        0.4036479592323303,
                        -0.18867626786231995,
                        0.15704965591430664,
                        -0.11045101284980774,
                        0.03201308846473694,
                        0.3302566409111023,
                        0.22359848022460938,
                        0.22161829471588135,
                        0.299497127532959,
                        -0.37068164348602295,
                        -0.3531598746776581,
                        0.37106186151504517,
                        -0.058032065629959106
                    ],
                    [
                        0.028144627809524536,
                        -0.260204017162323,
                        -0.011316746473312378,
                        0.10421621799468994,
                        0.259063720703125,
                        -0.40927278995513916,
                        -0.16707712411880493,
                        -0.10435327887535095,
                        -0.44571322202682495,
                        0.441927433013916,
                        0.45934200286865234,
                        -0.4495186507701874,
                        -0.1736460030078888,
                        -0.14714494347572327,
                        0.32616084814071655,
                        0.3166295886039734,
                        0.31735360622406006,
                        0.18586665391921997,
                        0.20624202489852905,
                        -0.12225699424743652,
                        -0.045224934816360474,
                        0.03099331259727478,
                        0.2711547017097473,
                        0.033967018127441406
                    ],
                    [
                        0.14870530366897583,
                        -0.06387573480606079,
                        -0.026050090789794922,
                        0.11213797330856323,
                        0.02923649549484253,
                        0.23750442266464233,
                        0.4446079134941101,
                        0.2062830924987793,
                        0.19033437967300415,
                        0.1231621503829956,
                        0.3635106086730957,
                        -0.059234827756881714,
                        0.09585827589035034,
                        -0.29545748233795166,
                        0.3796537518501282,
                        -0.10180622339248657,
                        0.37547487020492554,
                        -0.2896021008491516,
                        0.232336163520813,
                        0.27646398544311523,
                        0.2901436686515808,
                        0.39042848348617554,
                        -0.24561601877212524,
                        -0.10942450165748596
                    ]
                ],
                [
                    [
                        -0.014703989028930664,
                        -0.052660420536994934,
                        -0.18906565010547638,
                        -0.027870338410139084,
                        0.28150495886802673,
                        0.5370813012123108,
                        -0.12511755526065826,
                        -0.013307525776326656,
                        -0.08194722980260849,
                        -0.11702214181423187,
                        0.3600262701511383,
                        0.16616183519363403,
                        0.04969971999526024,
                        -0.06966135650873184,
                        -0.14176370203495026,
                        0.1247556135058403,
                        0.4957905411720276,
                        -0.2245330661535263,
                        -0.08378913253545761,
                        -0.09744872152805328,
                        0.17958329617977142,
                        0.03755106404423714,
                        0.08406815677881241,
                        -0.05352998152375221
                    ],
                    [
                        -0.25632143020629883,
                        -0.1763034611940384,
                        0.05088533088564873,
                        0.060736462473869324,
                        -0.21702519059181213,
                        0.11496126651763916,
                        0.19754596054553986,
                        -0.06152975186705589,
                        0.42229074239730835,
                        -0.07982395589351654,
                        0.06059254705905914,
                        0.3519660532474518,
                        0.1961946040391922,
                        -0.0631389319896698,
                        0.3238752484321594,
                        -0.14438913762569427,
                        -0.17153091728687286,
                        -0.1596825271844864,
                        -0.06989595293998718,
                        0.24523216485977173,
                        0.43455708026885986,
                        -0.021999958902597427,
                        0.05869835987687111,
                        -0.024936344474554062
                    ],
                    [
                        0.26429739594459534,
                        0.2866736352443695,
                        -0.4170972406864166,
                        -0.16004988551139832,
                        -0.016915570944547653,
                        0.2507719099521637,
                        -0.2739183008670807,
                        -0.26351040601730347,
                        0.012297820299863815,
                        0.20232784748077393,
                        0.08289835602045059,
                        -0.06753130257129669,
                        -0.043957993388175964,
                        -0.3025513291358948,
                        0.058132316917181015,
                        -0.24674782156944275,
                        -0.362606406211853,
                        0.1462329775094986,
                        -0.07132094353437424,
                        0.21244284510612488,
                        0.030976753681898117,
                        0.011654762551188469,
                        0.15597179532051086,
                        -0.044440142810344696
                    ],
                    [
                        -0.08286519348621368,
                        0.1187543198466301,
                        0.018597595393657684,
                        0.2636716961860657,
                        -0.5174089074134827,
                        0.4247632622718811,
                        -0.1557069718837738,
                        0.21310105919837952,
                        0.14053530991077423,
                        0.11471834778785706,
                        -0.0027123726904392242,
                        -0.30957433581352234,
                        -0.06971681118011475,
                        0.08232060819864273,
                        0.053315021097660065,
                        0.1742970049381256,
                        0.08429786562919617,
                        0.09303836524486542,
                        0.18759924173355103,
                        0.01480532344430685,
                        -0.025412220507860184,
                        -0.237220898270607,
                        -0.18728825449943542,
                        -0.27310287952423096
                    ],
                    [
                        0.26349836587905884,
                        0.04614904522895813,
                        0.012670423835515976,
                        0.08711717277765274,
                        -0.30654460191726685,
                        -0.12422854453325272,
                        -0.2874157428741455,
                        0.045448627322912216,
                        -0.13763666152954102,
                        0.1605030596256256,
                        -0.1105201244354248,
                        0.22677314281463623,
                        -0.06838327646255493,
                        0.28852295875549316,
                        -0.19481393694877625,
                        -0.1735181212425232,
                        0.01690635085105896,
                        -0.2572503983974457,
                        -0.5004273653030396,
                        -0.1283758580684662,
                        0.2667348384857178,
                        0.07252929359674454,
                        -0.2207942008972168,
                        -0.061279065907001495
                    ],
                    [
                        -0.07792367786169052,
                        0.2945553958415985,
                        -0.05744209513068199,
                        -0.01921764574944973,
                        -0.08395733684301376,
                        -0.20046280324459076,
                        -0.017599966377019882,
                        -0.14686058461666107,
                        0.06788961589336395,
                        -0.627491295337677,
                        -0.07615461200475693,
                        -0.36207115650177,
                        -0.020083332434296608,
                        -0.1288471221923828,
                        0.09119480103254318,
                        0.03696003183722496,
                        0.08995145559310913,
                        -0.17149293422698975,
                        -0.34857800602912903,
                        -0.08492514491081238,
                        0.057767853140830994,
                        -0.1779935210943222,
                        0.1863056719303131,
                        -0.1910461038351059
                    ],
                    [
                        0.2494042068719864,
                        0.1166655570268631,
                        0.3255583345890045,
                        0.11867890506982803,
                        -0.03244604170322418,
                        -0.15661145746707916,
                        0.007444983348250389,
                        0.14312103390693665,
                        0.037463780492544174,
                        0.0024993792176246643,
                        0.18355289101600647,
                        0.3095865845680237,
                        -0.5071380734443665,
                        -0.56517493724823,
                        0.03348378837108612,
                        0.09743562340736389,
                        0.06271202862262726,
                        -0.04946580529212952,
                        0.05948881059885025,
                        0.019000792875885963,
                        0.021322336047887802,
                        -0.15089978277683258,
                        -0.029317960143089294,
                        -0.07388031482696533
                    ],
                    [
                        0.27368834614753723,
                        0.07789310812950134,
                        0.010523773729801178,
                        0.09238416701555252,
                        0.17107540369033813,
                        0.01280929148197174,
                        0.015130795538425446,
                        0.49181294441223145,
                        -0.30622026324272156,
                        -0.2078910917043686,
                        -0.026129722595214844,
                        0.05299491435289383,
                        0.3363035321235657,
                        -0.016007069498300552,
                        0.1567555069923401,
                        0.22426915168762207,
                        -0.1858287751674652,
                        0.35119932889938354,
                        -0.06749514490365982,
                        0.10854051262140274,
                        0.3231631815433502,
                        0.05381569638848305,
                        0.005852745845913887,
                        -0.16900083422660828
                    ]
                ],
                [
                    [
                        0.06286577135324478,
                        -0.08725538104772568,
                        0.0031524316873401403,
                        -0.04498246684670448,
                        -0.02415957860648632,
                        0.04516242444515228,
                        0.0903686136007309,
                        -0.068561851978302,
                        0.001795734278857708,
                        -0.053304363042116165,
                        0.05468924716114998,
                        -0.12888453900814056,
                        0.03601060435175896,
                        -0.08504258841276169,
                        -0.007648237980902195,
                        0.016647672280669212,
                        -0.004524088464677334,
                        0.019942495971918106,
                        0.040844228118658066,
                        0.05011983588337898,
                        -0.010517681948840618,
                        -0.021584128960967064,
                        -0.011292736046016216,
                        -0.028223058208823204
                    ],
                    [
                        -2.8345810278551653e-05,
                        0.03886255994439125,
                        -0.014509305357933044,
                        -0.020699551329016685,
                        -0.08354662358760834,
                        0.0038439822383224964,
                        -0.026288330554962158,
                        0.07651444524526596,
                        -0.010920139960944653,
                        0.00162553321570158,
                        0.03276903182268143,
                        0.07323690503835678,
                        0.0133590716868639,
                        -0.008015989325940609,
                        0.007040800992399454,
                        -0.016925346106290817,
                        -0.0320768840610981,
                        0.04785878583788872,
                        0.08526003360748291,
                        0.01571986824274063,
                        -0.09566445648670197,
                        -0.028064584359526634,
                        -0.061855435371398926,
                        0.04923155903816223
                    ]
                ]
            ]
        },
        {
            "type": "dense",
            "activation": "",
            "shape": [
                null,
                null,
                1
            ],
            "weights": [
                [
                    [
                        0.32097625732421875
                    ],
                    [
                        -0.7121959924697876
                    ],
                    [
                        -0.2546757459640503
                    ],
                    [
                        0.33047056198120117
                    ],
                    [
                        0.040554437786340714
                    ],
                    [
                        -0.2066689431667328
                    ],
                    [
                        -0.3863450586795807
                    ],
                    [
                        0.148530974984169
                    ]
                ],
                [
                    0.045259829610586166
                ]
            ]
        }
    ]
}